GIS
1
0.0
34
prevToken=null
prevToken=EU
prevToken=rejects
prevToken=German
prevToken=call
prevToken=to
prevToken=boycott
prevToken=British
prevToken=lamb
prevToken=Peter
prevToken=BRUSSELS
prevToken=The
prevToken=European
prevToken=Commission
prevToken=said
prevToken=on
prevToken=Thursday
prevToken=it
prevToken=disagreed
prevToken=with
prevToken=advice
prevToken=consumers
prevToken=shun
prevToken=until
prevToken=scientists
prevToken=determine
prevToken=whether
prevToken=mad
prevToken=cow
prevToken=disease
prevToken=can
prevToken=be
prevToken=transmitted
prevToken=sheep
10
1 0 1 3 4 5 7 8 10 13 14 15 16 17 18 20 21 23 24 25 26 27 28 29 30 31 32 33
1 0 2 3 5 6 7 9 10 11 12 15 19 22 23 26 27 28
1 0 9 11 12 15
1 1 4 5 13 17 21 24 29 30 31
1 2 6 19 22
1 2 6 19 22 26
1 3 5 7 27 28
1 4 20 21 32
1 8 14 18 25
1 14 18 20 32
10
name=O
chunk=I-NP
POS=NNP
chunk=I-VP
name=I-MISC
POS=JJ
POS=NN
to
POS=IN
chunk=I-PP
0.3126717200688961
0.8548592124305833
0.7691682712434953
-0.5504220600220727
2.387346464187941
0.7691682712434953
3.9568590373003167
1.5754528718529108
0.8548592124305833
-0.23804097734666926
3.1502410278085975
3.9539267462203913
0.8548592124305833
-0.23804097734666926
0.15413710182694196
-0.5504220600220727
1.5754528718529108
0.8548592124305833
0.7496706166187661
1.9419350922166252
0.2611329177533364
0.2611329177533364
0.8548592124305833
0.8548592124305833
0.8548592124305833
0.15413710182694196
3.9539267462203913
5.082501371143784
0.9863226949161642
2.1129431912489327
3.2998355056850532
0.9863226949161642
2.1129431912489327
1.815028364378333
4.001589819514502
1.815028364378333
1.815028364378333
-0.1543001507076096
0.9863226949161642
0.9863226949161642
4.001589819514502
0.6533195472348
1.8320171313849856
1.8320171313849856
3.1406210419755123
5.289375923975798
5.289375923975798
5.289375923975798
6.4115977684999805
5.21486206004463
3.6469158405457103
4.378568075568391
5.21486206004463
5.21486206004463
3.6469158405457103
5.21486206004463
5.21486206004463
5.21486206004463
5.21486206004463
4.629314038348954
4.629314038348954
4.629314038348954
4.629314038348954
3.633107804856099
3.633107804856099
3.633107804856099
3.633107804856099
6.465762105879161
5.7828599894903405
2.3124615227735243
5.7828599894903405
5.8786926970105755
5.8786926970105755
7.057521775684144
4.953055317157585
7.057521775684144
4.953055317157585
3.5358041768604376
4.482324417660933
4.482324417660933
6.709920729509675
6.066634493656935
6.066634493656935
5.060873047089518
5.060873047089518
